digraph Tree {
node [shape=box, fontname="helvetica"] ;
edge [fontname="helvetica"] ;
0 [label="Sex=female <= 0.5\ngini = 0.473\nsamples = 712\nvalue = [439, 273]"] ;
1 [label="Age <= 13.0\ngini = 0.298\nsamples = 462\nvalue = [378, 84]"] ;
0 -> 1 [labeldistance=2.5, labelangle=45, headlabel="True"] ;
2 [label="Pclass <= 2.5\ngini = 0.464\nsamples = 30\nvalue = [11, 19]"] ;
1 -> 2 ;
3 [label="gini = 0.0\nsamples = 11\nvalue = [0, 11]"] ;
2 -> 3 ;
4 [label="Age <= 0.71\ngini = 0.488\nsamples = 19\nvalue = [11, 8]"] ;
2 -> 4 ;
5 [label="gini = 0.0\nsamples = 1\nvalue = [0, 1]"] ;
4 -> 5 ;
6 [label="Age <= 11.5\ngini = 0.475\nsamples = 18\nvalue = [11, 7]"] ;
4 -> 6 ;
7 [label="gini = 0.457\nsamples = 17\nvalue = [11, 6]"] ;
6 -> 7 ;
8 [label="gini = 0.0\nsamples = 1\nvalue = [0, 1]"] ;
6 -> 8 ;
9 [label="Pclass <= 1.5\ngini = 0.256\nsamples = 432\nvalue = [367, 65]"] ;
1 -> 9 ;
10 [label="Age <= 51.5\ngini = 0.424\nsamples = 95\nvalue = [66, 29]"] ;
9 -> 10 ;
11 [label="Age <= 47.5\ngini = 0.456\nsamples = 74\nvalue = [48, 26]"] ;
10 -> 11 ;
12 [label="gini = 0.415\nsamples = 68\nvalue = [48, 20]"] ;
11 -> 12 ;
13 [label="gini = 0.0\nsamples = 6\nvalue = [0, 6]"] ;
11 -> 13 ;
14 [label="Age <= 75.5\ngini = 0.245\nsamples = 21\nvalue = [18, 3]"] ;
10 -> 14 ;
15 [label="gini = 0.18\nsamples = 20\nvalue = [18, 2]"] ;
14 -> 15 ;
16 [label="gini = 0.0\nsamples = 1\nvalue = [0, 1]"] ;
14 -> 16 ;
17 [label="Age <= 32.25\ngini = 0.191\nsamples = 337\nvalue = [301, 36]"] ;
9 -> 17 ;
18 [label="Age <= 31.5\ngini = 0.214\nsamples = 254\nvalue = [223, 31]"] ;
17 -> 18 ;
19 [label="gini = 0.191\nsamples = 243\nvalue = [217, 26]"] ;
18 -> 19 ;
20 [label="gini = 0.496\nsamples = 11\nvalue = [6, 5]"] ;
18 -> 20 ;
21 [label="Age <= 41.5\ngini = 0.113\nsamples = 83\nvalue = [78, 5]"] ;
17 -> 21 ;
22 [label="gini = 0.044\nsamples = 44\nvalue = [43, 1]"] ;
21 -> 22 ;
23 [label="gini = 0.184\nsamples = 39\nvalue = [35, 4]"] ;
21 -> 23 ;
24 [label="Pclass <= 2.5\ngini = 0.369\nsamples = 250\nvalue = [61, 189]"] ;
0 -> 24 [labeldistance=2.5, labelangle=-45, headlabel="False"] ;
25 [label="Age <= 2.5\ngini = 0.086\nsamples = 134\nvalue = [6, 128]"] ;
24 -> 25 ;
26 [label="Pclass <= 1.5\ngini = 0.5\nsamples = 2\nvalue = [1, 1]"] ;
25 -> 26 ;
27 [label="gini = 0.0\nsamples = 1\nvalue = [1, 0]"] ;
26 -> 27 ;
28 [label="gini = 0.0\nsamples = 1\nvalue = [0, 1]"] ;
26 -> 28 ;
29 [label="Age <= 27.5\ngini = 0.073\nsamples = 132\nvalue = [5, 127]"] ;
25 -> 29 ;
30 [label="Age <= 24.5\ngini = 0.165\nsamples = 44\nvalue = [4, 40]"] ;
29 -> 30 ;
31 [label="gini = 0.054\nsamples = 36\nvalue = [1, 35]"] ;
30 -> 31 ;
32 [label="gini = 0.469\nsamples = 8\nvalue = [3, 5]"] ;
30 -> 32 ;
33 [label="Age <= 56.5\ngini = 0.022\nsamples = 88\nvalue = [1, 87]"] ;
29 -> 33 ;
34 [label="gini = 0.0\nsamples = 82\nvalue = [0, 82]"] ;
33 -> 34 ;
35 [label="gini = 0.278\nsamples = 6\nvalue = [1, 5]"] ;
33 -> 35 ;
36 [label="Age <= 38.5\ngini = 0.499\nsamples = 116\nvalue = [55, 61]"] ;
24 -> 36 ;
37 [label="Age <= 1.5\ngini = 0.492\nsamples = 108\nvalue = [47, 61]"] ;
36 -> 37 ;
38 [label="gini = 0.0\nsamples = 4\nvalue = [0, 4]"] ;
37 -> 38 ;
39 [label="Age <= 32.5\ngini = 0.495\nsamples = 104\nvalue = [47, 57]"] ;
37 -> 39 ;
40 [label="gini = 0.498\nsamples = 100\nvalue = [47, 53]"] ;
39 -> 40 ;
41 [label="gini = 0.0\nsamples = 4\nvalue = [0, 4]"] ;
39 -> 41 ;
42 [label="gini = 0.0\nsamples = 8\nvalue = [8, 0]"] ;
36 -> 42 ;
}